<Nnet> 
<Splice> 132 12 
[ -5 -4 -3 -2 -1 0 1 2 3 4 5 ]
<AddShift> 132 132 
<LearnRateCoef> 0  [ -0.1979368 -0.3731093 -0.3090048 -0.1050636 -0.2062858 -0.197226 -0.09809524 -0.03093304 -0.3727229 -0.06275165 -0.3005258 -0.1108951 -0.1979376 -0.3731071 -0.3090047 -0.1050635 -0.2062864 -0.1972259 -0.09809515 -0.03093304 -0.3727216 -0.06275161 -0.3005253 -0.1108951 -0.1979386 -0.3731053 -0.3090046 -0.1050634 -0.2062867 -0.1972257 -0.09809507 -0.03093307 -0.3727215 -0.06275158 -0.3005247 -0.1108938 -0.1979399 -0.3731038 -0.3090046 -0.1050633 -0.2062871 -0.1972256 -0.09809498 -0.03093321 -0.3727229 -0.06275162 -0.3005242 -0.1108919 -0.1979412 -0.3731024 -0.3090047 -0.1050632 -0.2062872 -0.1972256 -0.0980949 -0.03093338 -0.3727243 -0.06275181 -0.3005238 -0.1108898 -0.1979423 -0.3731011 -0.3090049 -0.1050631 -0.2062874 -0.1972256 -0.09809481 -0.03093388 -0.3727259 -0.06275201 -0.3005235 -0.1108875 -0.1979435 -0.3730999 -0.3090051 -0.105063 -0.2062875 -0.1972256 -0.09809472 -0.03093438 -0.3727275 -0.06275221 -0.3005233 -0.1108852 -0.1979446 -0.3730987 -0.3090048 -0.1050629 -0.2062876 -0.1972256 -0.09809467 -0.03093489 -0.3727292 -0.06275242 -0.300523 -0.1108833 -0.1979458 -0.3730972 -0.3090042 -0.1050629 -0.2062874 -0.1972256 -0.09809466 -0.03093539 -0.3727314 -0.06275263 -0.3005226 -0.1108818 -0.197947 -0.3730957 -0.3090035 -0.105063 -0.206287 -0.1972255 -0.09809464 -0.03093589 -0.3727335 -0.06275285 -0.300523 -0.1108807 -0.1979478 -0.3730939 -0.3090021 -0.105063 -0.2062856 -0.1972252 -0.09809462 -0.03093636 -0.3727356 -0.06275308 -0.3005229 -0.1108808 ]
<Rescale> 132 132 
<LearnRateCoef> 0  [ 2.844913 2.30037 2.294382 3.640052 2.690044 2.784754 3.632211 7.062694 2.312287 4.743046 2.349933 3.254926 2.844916 2.300368 2.294386 3.640051 2.690046 2.784753 3.632211 7.062694 2.312287 4.743046 2.349933 3.254932 2.844918 2.300365 2.294391 3.640051 2.690047 2.784753 3.632211 7.062694 2.312289 4.743045 2.349933 3.254964 2.84492 2.300364 2.294396 3.640051 2.690048 2.784753 3.632211 7.062694 2.312289 4.743045 2.349934 3.255002 2.84492 2.300363 2.2944 3.64005 2.690049 2.784752 3.632211 7.062692 2.312289 4.743037 2.349935 3.255043 2.844919 2.300361 2.294404 3.64005 2.69005 2.784752 3.632211 7.062657 2.312289 4.743029 2.349936 3.25509 2.844917 2.30036 2.294408 3.64005 2.690052 2.784752 3.632211 7.062623 2.312289 4.743021 2.349936 3.255136 2.844917 2.30036 2.294412 3.64005 2.690053 2.784752 3.63221 7.062588 2.312289 4.743012 2.349937 3.255175 2.844916 2.30036 2.294417 3.64005 2.690056 2.784752 3.63221 7.062553 2.31229 4.743003 2.349939 3.255208 2.844915 2.30036 2.294421 3.64005 2.690058 2.784752 3.63221 7.062519 2.312291 4.742995 2.349939 3.255235 2.844915 2.300361 2.294426 3.64005 2.690064 2.784754 3.63221 7.062484 2.312292 4.742987 2.34994 3.255241 ]
</Nnet> 
