<Nnet> 
<Splice> 429 39 
[ -5 -4 -3 -2 -1 0 1 2 3 4 5 ]
<AddShift> 429 429 
<LearnRateCoef> 0  [ -0.005595636 0.002660056 0.01120496 -0.002363346 0.002545554 0.003596245 0.004675756 0.002032788 -0.004416325 -0.001713342 0.004821775 -0.001127203 -0.0003335153 0.00118616 -0.0006339814 -0.002333471 0.0006445264 -0.0005083745 -0.0006340487 -0.001031823 -0.0003527106 0.0009135818 0.0003376268 -0.001351585 0.0005353889 0.0001027195 -0.0002187654 0.0001490475 0.0004217144 -0.0001522591 -2.345358e-05 0.0001950834 0.000351851 0.0001272742 -6.97776e-05 -2.166717e-06 0.0002138334 -0.0001559823 -0.0001671348 -0.00423619 0.002001185 0.0086353 -0.001764642 0.00203464 0.002801004 0.003453228 0.001258369 -0.003530714 -0.00117284 0.003745847 -0.0008029911 -0.0002422429 0.001111392 -0.0005404523 -0.002197213 0.0006093748 -0.0005412324 -0.000617243 -0.0008819322 -0.000314552 0.0008501263 0.0002658415 -0.001243744 0.000508552 0.0001380223 -0.0001967558 0.0001112512 0.0003396109 -0.0001419036 3.114027e-06 0.0001796191 0.0003018504 0.0001680035 -3.435869e-05 -1.969426e-05 0.0001980164 -0.0001182422 -0.0001445427 -0.00297324 0.001431589 0.006219452 -0.001133431 0.00142716 0.002006311 0.002173228 0.000618522 -0.002572109 -0.0007665658 0.002564704 -0.0006044974 0.000109275 0.00102649 -0.0004820566 -0.002107827 0.000533448 -0.0005160114 -0.0005727984 -0.0007450405 -0.0002131696 0.0008815067 0.0002343235 -0.00109841 0.0004193599 8.406687e-05 -0.000163277 6.687875e-05 0.0002583503 -0.0001347642 3.048544e-05 0.000145224 0.000241008 0.0001789251 -2.118622e-05 -1.912046e-05 0.0001856459 -0.0001038989 -0.0001438839 -0.001878014 0.0009612761 0.003988802 -0.0005738108 0.0008754556 0.001139817 0.001310754 0.0003431824 -0.001716823 -0.0007644059 0.001517997 -0.0002042606 0.0003972887 0.0009640698 -0.000461628 -0.002031577 0.0004357556 -0.000492003 -0.0005758236 -0.0006814725 -0.0001284417 0.0008789283 0.000225682 -0.0009601729 0.0002966737 6.16945e-06 -0.0001128988 2.360618e-05 0.0001752032 -0.0001188741 3.751025e-05 0.0001032646 0.0001548214 0.0001394419 -2.078658e-05 1.33447e-05 0.0001549248 -0.0001217754 -0.0001491692 -0.0009043522 0.0005468539 0.001892112 -0.0002967851 0.0004278315 0.0005392416 0.000617082 5.623858e-05 -0.0006942767 -0.0003116086 0.0008061933 -4.265823e-05 0.0002452359 0.0009307597 -0.0004822273 -0.001984148 0.0003406986 -0.0004522788 -0.0005656386 -0.0006405112 -8.400356e-05 0.0008392556 0.0002701771 -0.0008237755 0.0001670597 -0.0001267443 -5.191688e-05 -1.097431e-05 8.825029e-05 -7.748649e-05 2.632497e-05 4.74366e-05 6.024599e-05 7.765439e-05 -3.568937e-05 2.384325e-05 9.986861e-05 -0.0001135552 -0.0001090717 -3.100994e-07 -1.300574e-08 2.425056e-08 1.964832e-08 1.044775e-08 6.354814e-08 -7.292752e-08 4.997133e-08 -5.709535e-09 -1.66947e-08 2.630582e-09 -2.610208e-08 6.310954e-09 0.0009431508 -0.0005282722 -0.001987155 0.0002882192 -0.0004341177 -0.0005676855 -0.0006999352 -0.0001113064 0.0008035204 0.0003504312 -0.0007477558 2.096046e-05 -0.0002029506 7.569842e-06 -2.835417e-05 -6.102872e-06 -2.734634e-05 1.073885e-05 -8.606714e-06 -2.46059e-05 1.192107e-05 -2.702238e-05 2.250038e-05 4.443722e-05 -8.722221e-05 -4.522395e-05 0.000903732 -0.0005468799 -0.001892063 0.0002968244 -0.0004278106 -0.0005391145 -0.0006172279 -5.613864e-05 0.0006942652 0.0003115752 -0.000806188 4.260602e-05 -0.0002452232 0.0009555419 -0.0005743171 -0.001990162 0.0002357399 -0.0004159565 -0.0005697323 -0.0007593592 -0.0001386092 0.0007677852 0.0004306853 -0.0006717361 -0.0001251388 -0.0002791569 6.705656e-05 -4.573403e-05 -0.000100456 2.27938e-05 -4.847255e-06 -6.465002e-05 -0.0001094578 -5.381226e-05 -1.835539e-05 2.115751e-05 -1.099417e-05 -6.088919e-05 1.862376e-05 0.001933688 -0.001133215 -0.004054888 0.0005704802 -0.0008673162 -0.001159435 -0.001571767 -0.0001571621 0.001606509 0.0006761563 -0.001414594 -0.000142091 -0.0003722359 0.001003617 -0.0006208919 -0.002046762 0.0002213142 -0.0004135022 -0.0006160034 -0.0008153784 -0.0001655667 0.0007233052 0.0004850299 -0.0006549768 -0.0002546955 -0.0003417717 0.000118038 -5.907403e-05 -0.0001871794 8.440868e-05 -1.358803e-05 -0.0001074358 -0.0001700026 -9.791839e-05 -2.019903e-05 2.280647e-05 -6.490599e-05 3.404265e-06 6.764579e-05 0.003062723 -0.001747796 -0.006267505 0.0008693888 -0.001332275 -0.00202629 -0.002600928 -0.0006619759 0.002338271 0.001123695 -0.002132901 -0.0002992006 -0.0004777736 0.001063309 -0.0006816756 -0.002168768 0.0002566775 -0.0003989089 -0.0006673923 -0.0009096871 -0.0001596953 0.0006796008 0.0005070852 -0.0007028968 -0.0002876863 -0.0003480302 0.0001580127 -6.743147e-05 -0.0002639192 0.0001356722 -1.566098e-05 -0.0001165794 -0.0002016956 -0.0001041037 -5.957429e-06 2.636009e-05 -0.0001043663 7.159365e-05 0.0001013212 0.004320638 -0.002350903 -0.00872319 0.001345939 -0.00186304 -0.002991 -0.003575754 -0.0009631685 0.003116549 0.001400207 -0.003092559 -0.0003873915 -0.0005260918 0.001116052 -0.0007278472 -0.002292585 0.000321258 -0.0003616248 -0.0006948736 -0.000955124 -0.0001136902 0.0006194004 0.0005817873 -0.0006724233 -0.0002332314 -0.0004248935 0.0001893104 -7.214618e-05 -0.0003158474 0.0001590835 -1.500148e-05 -0.0001128142 -0.0002156074 -0.0001083967 8.642281e-06 3.537423e-05 -0.0001197151 0.0001045743 0.0001059029 0.005635152 -0.003050527 -0.01151974 0.001971039 -0.00230605 -0.003972942 -0.004937887 -0.001224444 0.003984434 0.00162728 -0.004156047 -0.0001408763 -0.0002621295 0.001167485 -0.0007662729 -0.002429408 0.0003412356 -0.0003164593 -0.0006456313 -0.0009276979 1.678332e-05 0.0006292028 0.0006486249 -0.0006407209 -0.0002119639 -0.0005202751 0.0002198301 -7.677669e-05 -0.0003409372 0.0001530881 -2.919557e-05 -0.0001141711 -0.0002005048 -0.0001338415 5.581303e-06 3.894227e-05 -0.0001202138 9.441999e-05 9.348756e-05 ]
<Rescale> 429 429 
<LearnRateCoef> 0  [ 0.06868937 0.0543073 0.06846929 0.05956105 0.0599089 0.06220569 0.06110884 0.06471029 0.06846957 0.07134654 0.07871921 0.08103451 0.09120643 0.3914982 0.2561395 0.3013625 0.2936515 0.2658067 0.2642625 0.2613581 0.2630754 0.2708281 0.280682 0.2998035 0.3122625 0.3438932 1.009753 0.6826547 0.7554961 0.7524733 0.661949 0.6418404 0.6319881 0.6262445 0.6399615 0.6622291 0.6971599 0.7295868 0.7975539 0.06868109 0.05430808 0.06847338 0.05956126 0.05990784 0.06220437 0.06110895 0.06470982 0.06847262 0.07134818 0.07871986 0.08103797 0.0912087 0.3914858 0.2561356 0.3013526 0.2936459 0.2658048 0.2642563 0.2613539 0.2630742 0.2708285 0.2806855 0.2998064 0.3122662 0.3439043 1.00972 0.6826276 0.7554502 0.7523932 0.6618677 0.6417479 0.6318784 0.6261325 0.6398413 0.662089 0.6970111 0.7294219 0.7973773 0.06867337 0.05430869 0.06847789 0.0595611 0.05990672 0.06220353 0.06110898 0.06470968 0.06847516 0.07134996 0.07872102 0.08103891 0.09121256 0.3914724 0.2561322 0.3013444 0.2936385 0.2658031 0.2642502 0.2613485 0.263075 0.2708284 0.2806867 0.2998086 0.312267 0.343914 1.009693 0.6825987 0.7553981 0.7523146 0.6617829 0.6416503 0.63176 0.6260061 0.639711 0.6619307 0.6968461 0.7292358 0.7971905 0.06866657 0.05430915 0.06848148 0.05956086 0.05990604 0.06220214 0.06110894 0.06470971 0.06847685 0.07135095 0.07872222 0.08104099 0.09121569 0.3914609 0.2561289 0.3013365 0.2936322 0.2657993 0.2642473 0.2613413 0.2630732 0.2708253 0.2806866 0.2998114 0.3122682 0.343925 1.00967 0.682574 0.7553534 0.7522464 0.661708 0.6415551 0.6316541 0.6258946 0.6395934 0.6617889 0.69669 0.7290628 0.7970176 0.06866042 0.05430974 0.06848442 0.05956103 0.05990569 0.06220096 0.06110954 0.06471038 0.06847915 0.07135254 0.07872209 0.08104265 0.09121621 0.3914535 0.2561253 0.3013271 0.2936242 0.2657905 0.2642363 0.2613276 0.2630598 0.2708114 0.280672 0.2997989 0.3122499 0.3439197 1.009659 0.6825638 0.7553417 0.7522155 0.6616765 0.6415108 0.6316062 0.6258464 0.6395419 0.6617223 0.6966212 0.7289826 0.7969398 0.06865468 0.05431069 0.06848738 0.05956098 0.05990475 0.06220042 0.06110901 0.06471025 0.06848078 0.07135484 0.07872125 0.08104456 0.09121697 0.3914532 0.2561246 0.3013268 0.2936234 0.2657902 0.2642339 0.2613276 0.2630589 0.2708111 0.280673 0.2998016 0.3122486 0.343932 1.00966 0.6825625 0.7553493 0.752216 0.6616732 0.6415107 0.6315984 0.6258465 0.6395418 0.6617199 0.6966232 0.7289811 0.7969498 0.06864895 0.05431165 0.06849033 0.05956092 0.0599038 0.06219989 0.06110848 0.06471013 0.06848241 0.07135713 0.07872041 0.08104648 0.09121773 0.3914528 0.2561238 0.3013266 0.2936227 0.2657899 0.2642315 0.2613275 0.2630579 0.2708109 0.2806741 0.2998042 0.3122473 0.3439442 1.00966 0.6825612 0.7553569 0.7522166 0.6616699 0.6415107 0.6315908 0.6258467 0.6395417 0.6617175 0.6966252 0.7289796 0.7969599 0.0686425 0.05431256 0.06849445 0.05956109 0.05990286 0.06219904 0.06110779 0.06471104 0.06848404 0.07135961 0.07872105 0.08105025 0.09121844 0.3914603 0.256126 0.3013377 0.2936306 0.2657966 0.2642381 0.2613369 0.2630686 0.2708243 0.2806879 0.2998194 0.312263 0.3439767 1.009669 0.6825668 0.7553819 0.7522471 0.6617 0.6415453 0.631631 0.6258976 0.6395929 0.661779 0.6967087 0.7290627 0.7970635 0.06863551 0.0543135 0.06849915 0.05956131 0.0599015 0.06219759 0.06110733 0.06471061 0.0684851 0.07136213 0.07871937 0.08105361 0.09122004 0.3914717 0.2561281 0.3013532 0.2936366 0.2657961 0.2642385 0.2613372 0.2630688 0.2708259 0.2806867 0.2998221 0.3122574 0.3439871 1.009694 0.682586 0.7554269 0.7523189 0.6617723 0.6416229 0.631734 0.626012 0.6397136 0.6619195 0.6968755 0.7292371 0.7972781 0.06862755 0.05431447 0.06850477 0.05956169 0.05990028 0.06219617 0.06110787 0.06471024 0.06848668 0.07136492 0.07871751 0.08105681 0.09122358 0.3914844 0.2561299 0.3013681 0.2936416 0.2657968 0.2642383 0.2613371 0.2630716 0.2708257 0.2806855 0.2998268 0.3122527 0.3439917 1.009724 0.6826087 0.7554887 0.7524053 0.6618505 0.6417134 0.6318461 0.6261342 0.6398461 0.6620709 0.6970434 0.7294223 0.7975066 0.06861914 0.05431577 0.06851144 0.05956233 0.05989937 0.06219506 0.06110715 0.06471044 0.06848863 0.07136806 0.07871786 0.08106096 0.09122819 0.3914969 0.2561327 0.3013796 0.2936477 0.2657971 0.2642378 0.261341 0.2630755 0.2708257 0.2806875 0.2998271 0.3122516 0.3439952 1.009754 0.6826289 0.755562 0.7524886 0.6619168 0.641798 0.6319464 0.6262465 0.6399688 0.6622092 0.6972057 0.7295807 0.7977186 ]
</Nnet> 
