<Nnet> 
<Splice> 616 56 
[ -5 -4 -3 -2 -1 0 1 2 3 4 5 ]
<AddShift> 616 616 
<LearnRateCoef> 0  [ -0.5510902 -0.1731345 -0.0691436 -0.06954764 -0.1820703 -0.3769277 -0.05893371 -0.1566405 -0.1211488 -0.5726044 -0.2851817 -0.1050285 -1.014809e-10 -0.3106794 -0.3978785 -0.2250432 -0.0301552 -0.024719 -0.01502846 -0.006772963 -0.01563036 -0.02592313 -0.02617449 -0.0177209 -0.04398134 -0.01229905 -0.02426691 -0.0428414 -0.05048833 -0.01237389 -0.01504725 -0.004087334 -0.002925255 -0.0298143 -0.01121505 -0.04158363 -0.01606528 -0.01054682 -0.02267325 -0.02872636 -0.005844784 -0.05625903 -0.01306782 -0.001865481 -0.02500701 -0.01704712 -0.0004456749 -0.03920257 -0.01888938 -0.009726692 -0.004958057 -0.02534471 -0.009073583 -0.008596933 -0.003675739 -0.004892278 -0.5510903 -0.173134 -0.06914321 -0.06954818 -0.1820719 -0.3769317 -0.0589349 -0.1566433 -0.12115 -0.5726074 -0.2851804 -0.1050271 -1.014843e-10 -0.3106756 -0.3978747 -0.2250439 -0.03015507 -0.02471707 -0.01502699 -0.006772488 -0.01562853 -0.02592255 -0.0261743 -0.01772046 -0.0439812 -0.01229861 -0.02426676 -0.04284146 -0.05048918 -0.0123739 -0.01504738 -0.004087433 -0.002925217 -0.02981545 -0.01121472 -0.0415831 -0.01606561 -0.01054703 -0.02267505 -0.02872642 -0.005844871 -0.05626059 -0.01306848 -0.001865386 -0.02500815 -0.01704742 -0.0004457846 -0.03920248 -0.01888873 -0.009726623 -0.004957725 -0.02534547 -0.009073624 -0.008596641 -0.00367583 -0.004892329 -0.5510904 -0.1731341 -0.06914213 -0.06954862 -0.1820739 -0.3769342 -0.05893618 -0.1566448 -0.1211509 -0.5726084 -0.2851796 -0.1050259 -1.01489e-10 -0.3106721 -0.397871 -0.2250447 -0.030156 -0.02471601 -0.01502593 -0.006771981 -0.01562663 -0.02592226 -0.02617398 -0.0177199 -0.04398092 -0.01229821 -0.02426661 -0.04284159 -0.0504901 -0.01237395 -0.01504767 -0.004087413 -0.00292501 -0.0298162 -0.01121444 -0.04158259 -0.0160657 -0.01054733 -0.02267629 -0.02872604 -0.005844989 -0.05626241 -0.01306933 -0.00186525 -0.02500899 -0.01704786 -0.0004459061 -0.03920236 -0.01888786 -0.009726391 -0.004957323 -0.02534585 -0.00907359 -0.008596298 -0.003675757 -0.004892428 -0.5510885 -0.1731346 -0.06914087 -0.0695489 -0.1820757 -0.3769345 -0.05893756 -0.156646 -0.1211521 -0.5726083 -0.2851797 -0.1050246 -1.014947e-10 -0.3106703 -0.397869 -0.2250457 -0.03015725 -0.02471501 -0.01502498 -0.006771309 -0.01562504 -0.02592214 -0.02617355 -0.01771933 -0.04398068 -0.01229793 -0.02426658 -0.042842 -0.05049117 -0.0123739 -0.01504802 -0.004087344 -0.002924882 -0.02981685 -0.01121427 -0.04158155 -0.01606568 -0.01054741 -0.02267693 -0.02872577 -0.005845176 -0.05626407 -0.01307006 -0.001865166 -0.02500937 -0.01704809 -0.0004460205 -0.03920246 -0.01888699 -0.009726015 -0.004957121 -0.02534617 -0.009073553 -0.008596249 -0.003675736 -0.004892531 -0.5510862 -0.1731361 -0.06914008 -0.06954861 -0.1820769 -0.3769328 -0.05893856 -0.1566468 -0.1211536 -0.5726069 -0.2851797 -0.105023 -1.015022e-10 -0.3106697 -0.3978687 -0.2250467 -0.03015816 -0.02471424 -0.01502458 -0.006771016 -0.01562395 -0.02592201 -0.02617292 -0.0177189 -0.04398068 -0.01229753 -0.02426636 -0.04284254 -0.05049171 -0.01237394 -0.01504846 -0.004087221 -0.002924668 -0.02981731 -0.01121388 -0.04158068 -0.01606575 -0.01054773 -0.02267723 -0.02872552 -0.0058452 -0.05626523 -0.01307052 -0.001865057 -0.02500956 -0.01704813 -0.0004461422 -0.03920298 -0.01888621 -0.009725716 -0.00495708 -0.02534636 -0.00907357 -0.008596165 -0.003675818 -0.004892641 -0.5510851 -0.1731368 -0.06913961 -0.06954842 -0.1820781 -0.3769322 -0.05893884 -0.1566473 -0.1211544 -0.5726063 -0.285179 -0.1050222 -1.015113e-10 -0.3106698 -0.3978685 -0.225047 -0.03015838 -0.02471384 -0.01502435 -0.006770692 -0.01562366 -0.02592216 -0.02617216 -0.01771884 -0.0439806 -0.01229738 -0.02426647 -0.04284263 -0.05049171 -0.01237405 -0.01504873 -0.004087271 -0.002924653 -0.02981756 -0.01121372 -0.04158026 -0.01606575 -0.01054783 -0.02267738 -0.0287251 -0.005845233 -0.05626611 -0.01307057 -0.001865013 -0.02500965 -0.01704815 -0.0004461723 -0.03920312 -0.01888601 -0.009725594 -0.004957201 -0.02534649 -0.0090738 -0.008596341 -0.003675808 -0.004892686 -0.551084 -0.1731376 -0.06913913 -0.06954823 -0.1820793 -0.3769317 -0.05893913 -0.1566477 -0.1211553 -0.5726056 -0.2851782 -0.1050215 -1.015204e-10 -0.31067 -0.3978683 -0.2250473 -0.03015859 -0.02471345 -0.01502412 -0.006770367 -0.01562336 -0.02592231 -0.0261714 -0.01771877 -0.04398052 -0.01229724 -0.02426658 -0.04284271 -0.0504917 -0.01237416 -0.01504901 -0.00408732 -0.002924639 -0.0298178 -0.01121356 -0.04157984 -0.01606575 -0.01054794 -0.02267752 -0.02872468 -0.005845266 -0.05626698 -0.01307062 -0.001864968 -0.02500973 -0.01704817 -0.0004462025 -0.03920325 -0.0188858 -0.009725473 -0.004957322 -0.02534661 -0.009074031 -0.008596517 -0.003675798 -0.004892731 -0.5510823 -0.1731392 -0.06913924 -0.0695477 -0.1820803 -0.3769304 -0.05893878 -0.1566479 -0.1211563 -0.5726044 -0.2851772 -0.1050202 -1.0153e-10 -0.3106706 -0.3978677 -0.2250485 -0.03015877 -0.02471298 -0.01502395 -0.006770337 -0.01562281 -0.02592274 -0.02617064 -0.0177185 -0.0439808 -0.01229704 -0.02426641 -0.04284263 -0.05049149 -0.01237469 -0.01504972 -0.004087324 -0.002924702 -0.0298183 -0.01121334 -0.04157949 -0.01606556 -0.0105481 -0.02267764 -0.02872379 -0.005845389 -0.05626762 -0.01307067 -0.001864898 -0.02500983 -0.01704778 -0.0004462014 -0.03920336 -0.01888534 -0.009725492 -0.004957351 -0.02534654 -0.009074367 -0.008596611 -0.003675643 -0.004892685 -0.55108 -0.1731413 -0.0691391 -0.06954718 -0.1820817 -0.3769294 -0.05893888 -0.1566479 -0.1211572 -0.572603 -0.2851765 -0.1050195 -1.01543e-10 -0.3106703 -0.3978669 -0.2250498 -0.03015906 -0.02471278 -0.01502362 -0.006770592 -0.01562214 -0.02592341 -0.02617013 -0.01771788 -0.04398063 -0.01229662 -0.02426665 -0.04284178 -0.05049123 -0.01237569 -0.01505043 -0.00408726 -0.002924802 -0.02981947 -0.01121311 -0.04157957 -0.01606551 -0.01054818 -0.02267708 -0.0287233 -0.005845444 -0.05626819 -0.01307062 -0.00186485 -0.02500994 -0.01704726 -0.000446193 -0.03920341 -0.01888479 -0.009725437 -0.004957282 -0.02534649 -0.009074686 -0.008596666 -0.003675428 -0.004892653 -0.5510786 -0.1731425 -0.06913863 -0.06954664 -0.1820853 -0.3769293 -0.05893945 -0.1566485 -0.1211564 -0.5726032 -0.2851732 -0.105019 -1.015603e-10 -0.3106691 -0.3978647 -0.2250513 -0.03015885 -0.02471221 -0.0150234 -0.006770653 -0.01562169 -0.02592487 -0.02616948 -0.01771745 -0.04398045 -0.01229611 -0.02426687 -0.04284043 -0.05049035 -0.01237674 -0.01505122 -0.004087287 -0.002924776 -0.02982021 -0.01121271 -0.04158023 -0.0160656 -0.01054824 -0.02267619 -0.02872293 -0.00584527 -0.05626952 -0.0130708 -0.001864796 -0.02501004 -0.01704698 -0.000446178 -0.0392035 -0.01888428 -0.009725541 -0.004957125 -0.02534658 -0.009074722 -0.008596707 -0.00367514 -0.004892626 -0.5510769 -0.173144 -0.06913805 -0.06954554 -0.1820887 -0.3769295 -0.0589399 -0.1566486 -0.1211549 -0.5726024 -0.2851695 -0.1050185 -1.015808e-10 -0.3106671 -0.3978618 -0.2250533 -0.03015813 -0.02471179 -0.01502347 -0.00677061 -0.01562135 -0.02592657 -0.02616896 -0.01771763 -0.04397957 -0.01229579 -0.02426738 -0.04283889 -0.05048945 -0.01237776 -0.01505205 -0.004087085 -0.002924722 -0.02982042 -0.01121223 -0.04158098 -0.01606571 -0.01054839 -0.02267566 -0.02872235 -0.00584488 -0.05627073 -0.01307117 -0.001864598 -0.02501018 -0.0170468 -0.000446164 -0.0392037 -0.01888373 -0.009725639 -0.004956959 -0.02534609 -0.009074808 -0.008596884 -0.003674845 -0.004892655 ]
<Rescale> 616 616 
<LearnRateCoef> 0  [ 2.150738 2.978535 4.334082 4.515956 2.989979 2.205638 4.939824 3.167331 3.28857 2.20012 2.460874 3.773163 100000 2.35065 2.219459 2.437587 7.865756 7.282827 9.44072 15.46865 9.799517 7.072124 7.492602 8.938503 5.755485 10.6566 7.706051 5.65349 5.564135 11.65085 9.057355 19.61023 25.01201 7.108563 10.23219 6.48534 10.70498 11.5553 8.944712 7.41473 16.37851 5.761392 11.20106 30.00235 7.62436 9.808103 65.1981 5.841889 8.518064 13.07747 20.33513 7.189166 13.12937 13.86654 22.04898 77.32167 2.150738 2.978538 4.33408 4.515952 2.989964 2.205634 4.939774 3.167314 3.288552 2.200121 2.46088 3.773196 100000 2.350658 2.219465 2.437585 7.865797 7.283136 9.441202 15.46953 9.80026 7.072229 7.49264 8.93859 5.755507 10.65686 7.70605 5.653479 5.564081 11.65077 9.057344 19.61031 25.01245 7.108341 10.23243 6.4854 10.70483 11.55525 8.944156 7.414758 16.37835 5.761299 11.20067 30.00366 7.624136 9.807933 65.18498 5.841921 8.518204 13.07773 20.33589 7.189032 13.1293 13.86666 22.04918 77.31992 2.150738 2.978538 4.334102 4.515948 2.989943 2.205629 4.939716 3.167304 3.288541 2.200123 2.460883 3.773217 100000 2.350666 2.21947 2.437583 7.865682 7.283282 9.441591 15.47061 9.800992 7.072285 7.492684 8.938724 5.755537 10.65705 7.70607 5.653478 5.564023 11.65069 9.05721 19.61082 25.0139 7.108201 10.23263 6.485456 10.7048 11.55509 8.943755 7.41482 16.37804 5.761186 11.20017 30.00564 7.624004 9.807702 65.16827 5.841961 8.518406 13.07805 20.33708 7.188949 13.12928 13.86688 22.05014 77.31586 2.150735 2.97853 4.334128 4.515944 2.989924 2.205626 4.939646 3.167297 3.288527 2.200122 2.460881 3.773238 100000 2.350667 2.219469 2.437579 7.8655 7.283434 9.441889 15.47181 9.801642 7.072294 7.492748 8.938875 5.755544 10.65714 7.706075 5.653452 5.563966 11.6508 9.057039 19.61151 25.0149 7.108089 10.23275 6.485558 10.70483 11.55504 8.943524 7.414848 16.37759 5.761072 11.19981 30.00734 7.623939 9.807542 65.15113 5.841973 8.518621 13.07845 20.33726 7.188892 13.12926 13.8667 22.05074 77.31032 2.150735 2.978513 4.334137 4.515954 2.989911 2.205628 4.939603 3.167291 3.288508 2.200121 2.460881 3.773261 100000 2.350667 2.219469 2.437576 7.865353 7.283564 9.441973 15.47235 9.802183 7.072333 7.492856 8.938989 5.755536 10.65732 7.7061 5.653417 5.563929 11.65086 9.056859 19.61228 25.01628 7.108013 10.23297 6.485662 10.70481 11.55488 8.94341 7.4149 16.37742 5.760999 11.19951 30.00904 7.623912 9.807468 65.13336 5.841929 8.518829 13.07875 20.33716 7.188879 13.1292 13.86662 22.05082 77.30396 2.150734 2.978507 4.334144 4.515964 2.989897 2.205629 4.93959 3.167289 3.288497 2.200121 2.460883 3.773274 100000 2.350665 2.219469 2.437575 7.865303 7.283627 9.442074 15.47286 9.802344 7.072303 7.492985 8.938979 5.755527 10.65744 7.706048 5.653412 5.563917 11.6509 9.056761 19.61228 25.01619 7.107954 10.23306 6.485724 10.70482 11.5549 8.943322 7.41496 16.37725 5.760925 11.19946 30.01 7.623917 9.807444 65.13083 5.841919 8.518887 13.07894 20.33654 7.188864 13.1291 13.86633 22.05103 77.3019 2.150733 2.978501 4.334151 4.515974 2.989883 2.20563 4.939578 3.167286 3.288487 2.200121 2.460884 3.773286 100000 2.350663 2.219468 2.437575 7.865253 7.283689 9.442175 15.47338 9.802505 7.072273 7.493113 8.93897 5.755519 10.65755 7.705997 5.653407 5.563905 11.65094 9.056664 19.61228 25.0161 7.107894 10.23315 6.485786 10.70484 11.55491 8.943233 7.41502 16.37708 5.760852 11.19942 30.01096 7.623921 9.80742 65.1283 5.84191 8.518943 13.07912 20.33592 7.188848 13.12901 13.86604 22.05124 77.29983 2.150731 2.978489 4.334147 4.515989 2.989869 2.205627 4.9396 3.167284 3.28847 2.200122 2.460886 3.773311 100000 2.35066 2.219465 2.43757 7.865221 7.283776 9.442273 15.47327 9.802723 7.07221 7.49318 8.939026 5.755484 10.65768 7.706 5.653398 5.563905 11.65072 9.056401 19.61241 25.01547 7.107794 10.23322 6.485828 10.70498 11.55482 8.943181 7.415135 16.37677 5.760785 11.19937 30.01204 7.623921 9.80757 65.13142 5.841884 8.519043 13.07917 20.33543 7.188863 13.12884 13.86594 22.05191 77.30074 2.150731 2.978478 4.334154 4.516006 2.989858 2.205631 4.939603 3.167287 3.288463 2.200123 2.460891 3.773323 100000 2.350663 2.219466 2.437566 7.865143 7.283802 9.442491 15.47259 9.802979 7.072133 7.493194 8.939253 5.755486 10.65798 7.705945 5.653466 5.563929 11.65026 9.056142 19.61246 25.01464 7.107619 10.23325 6.48579 10.70504 11.55481 8.943326 7.415184 16.37657 5.760729 11.19944 30.0131 7.623942 9.807837 65.1377 5.841867 8.519208 13.07933 20.3355 7.188889 13.12864 13.8658 22.05272 77.30097 2.150733 2.978476 4.334176 4.516024 2.98983 2.205632 4.939572 3.167282 3.28848 2.200124 2.460906 3.773334 100000 2.35067 2.21947 2.43756 7.865165 7.283909 9.442669 15.47226 9.803189 7.071908 7.493249 8.939414 5.755476 10.65835 7.705915 5.653558 5.563978 11.64973 9.05581 19.61207 25.01435 7.107471 10.23339 6.485676 10.70504 11.55485 8.943641 7.415198 16.37679 5.760624 11.19941 30.01368 7.623957 9.808019 65.14491 5.841848 8.519368 13.07937 20.33584 7.188884 13.12866 13.86574 22.05399 77.30221 2.150733 2.978469 4.33421 4.516066 2.989807 2.205631 4.939554 3.167278 3.288508 2.200124 2.460922 3.773352 100000 2.350674 2.219476 2.437552 7.86533 7.284002 9.442733 15.47211 9.803349 7.071667 7.493249 8.939306 5.755518 10.65853 7.705829 5.653666 5.564044 11.64929 9.055492 19.61229 25.01458 7.107379 10.2336 6.485554 10.70501 11.55483 8.943791 7.415239 16.37746 5.760515 11.1993 30.01536 7.623955 9.80815 65.15256 5.841806 8.519531 13.07936 20.33594 7.18898 13.12863 13.86544 22.05563 77.3012 ]
</Nnet> 
