<Nnet> 
<Splice> 605 55 
[ -5 -4 -3 -2 -1 0 1 2 3 4 5 ]
<AddShift> 605 605 
<LearnRateCoef> 0  [ -0.6243718 -0.2003905 -0.09809524 -0.06298032 -0.2071483 -0.4368286 -0.07349191 -0.182566 -0.1574183 -0.6729773 -0.3691415 -0.06712731 -0.1108951 -0.3908398 -0.4994867 -0.1130364 -0.03139442 -0.01087664 -0.0177629 -0.004891254 -0.01203081 -0.02876602 -0.04334129 -0.02254997 -0.06590964 -0.0178884 -0.03986606 -0.06375212 -0.04778006 -0.008912722 -0.01502821 -0.007017341 -0.001940227 -0.04227176 -0.008622512 -0.04368083 -0.01514737 -0.01882481 -0.02222239 -0.01905953 -0.007500192 -0.06632248 -0.02211397 -0.001389451 -0.03928057 -0.01604311 -0.0006469141 -0.04933176 -0.01753394 -0.006184598 -0.003633027 -0.01982285 -0.009849302 -0.01054686 -0.007227341 -0.6243707 -0.2003899 -0.09809515 -0.06298026 -0.2071477 -0.4368282 -0.07349187 -0.1825652 -0.1574173 -0.6729756 -0.3691408 -0.06712734 -0.1108951 -0.3908398 -0.4994862 -0.1130365 -0.0313937 -0.01087664 -0.0177629 -0.004891254 -0.01203081 -0.0287655 -0.04334138 -0.02254987 -0.06590962 -0.01788951 -0.03986602 -0.06375208 -0.04778018 -0.008912722 -0.0150282 -0.00701734 -0.001940227 -0.04227166 -0.008622511 -0.04368083 -0.01514737 -0.0188248 -0.02222239 -0.01905955 -0.007500187 -0.06632251 -0.02211397 -0.001389451 -0.03928052 -0.0160431 -0.0006469141 -0.0493317 -0.01753394 -0.006184599 -0.003633028 -0.01982285 -0.009849302 -0.01054711 -0.007227339 -0.6243703 -0.2003894 -0.09809507 -0.0629802 -0.2071474 -0.4368282 -0.07349219 -0.1825645 -0.1574162 -0.6729745 -0.36914 -0.0671277 -0.1108938 -0.3908395 -0.4994856 -0.1130363 -0.03139295 -0.01087665 -0.01776291 -0.004891253 -0.01203082 -0.02876498 -0.04334142 -0.02254977 -0.06590962 -0.01789052 -0.03986598 -0.06375206 -0.04778025 -0.008912722 -0.01502818 -0.007017338 -0.001940227 -0.04227157 -0.00862251 -0.04368085 -0.01514738 -0.0188248 -0.02222239 -0.01905969 -0.00750018 -0.06632281 -0.02211397 -0.001389452 -0.03928049 -0.01604312 -0.0006469141 -0.04933164 -0.01753394 -0.006184599 -0.00363303 -0.01982285 -0.009849302 -0.01054733 -0.007227338 -0.6243709 -0.200389 -0.09809498 -0.06298014 -0.2071475 -0.4368294 -0.0734928 -0.1825637 -0.1574153 -0.6729752 -0.3691393 -0.06712876 -0.1108919 -0.3908395 -0.4994848 -0.1130352 -0.03139224 -0.01087666 -0.01776291 -0.004891253 -0.01203083 -0.02876446 -0.04334147 -0.02254967 -0.06590961 -0.01789182 -0.03986596 -0.06375202 -0.04778031 -0.008912722 -0.01502817 -0.007017338 -0.001940227 -0.04227147 -0.00862251 -0.04368087 -0.0151474 -0.0188248 -0.0222224 -0.01905988 -0.007500174 -0.06632359 -0.02211397 -0.001389453 -0.03928046 -0.01604319 -0.0006469141 -0.04933157 -0.01753393 -0.006184599 -0.003633037 -0.01982285 -0.009849302 -0.01054753 -0.007227337 -0.6243722 -0.2003886 -0.0980949 -0.06298008 -0.2071479 -0.4368306 -0.07349336 -0.182563 -0.1574144 -0.6729769 -0.3691387 -0.06712986 -0.1108898 -0.39084 -0.499484 -0.1130334 -0.03139156 -0.01087667 -0.01776291 -0.004891253 -0.01203083 -0.02876394 -0.04334151 -0.02254957 -0.06590959 -0.01789304 -0.03986599 -0.063752 -0.04778038 -0.008912722 -0.01502816 -0.007017338 -0.001940227 -0.04227138 -0.008622511 -0.0436809 -0.01514747 -0.0188248 -0.02222241 -0.01906013 -0.007500169 -0.06632486 -0.02211398 -0.001389454 -0.03928045 -0.01604323 -0.0006469141 -0.04933152 -0.01753393 -0.006184599 -0.003633042 -0.01982285 -0.009849302 -0.0105477 -0.007227337 -0.6243742 -0.2003882 -0.09809481 -0.06298002 -0.2071482 -0.4368326 -0.07349382 -0.1825623 -0.1574134 -0.6729789 -0.3691381 -0.06713083 -0.1108875 -0.3908404 -0.4994836 -0.1130315 -0.03139094 -0.01087674 -0.01776291 -0.004891252 -0.01203083 -0.02876342 -0.04334155 -0.02254947 -0.06590959 -0.01789397 -0.03986618 -0.06375197 -0.04778048 -0.008912723 -0.01502817 -0.007017338 -0.001940227 -0.04227128 -0.008622512 -0.043681 -0.01514753 -0.0188248 -0.02222241 -0.01906045 -0.007500164 -0.06632616 -0.022114 -0.001389454 -0.03928045 -0.01604331 -0.0006469141 -0.04933146 -0.01753392 -0.006184599 -0.003633044 -0.01982285 -0.009849303 -0.01054786 -0.007227335 -0.6243759 -0.2003877 -0.09809472 -0.06297996 -0.2071486 -0.4368345 -0.07349427 -0.1825617 -0.1574125 -0.6729809 -0.3691375 -0.06713182 -0.1108852 -0.3908407 -0.4994833 -0.1130295 -0.03139032 -0.01087682 -0.01776292 -0.004891252 -0.01203083 -0.02876289 -0.0433416 -0.02254937 -0.06590958 -0.0178949 -0.03986636 -0.06375194 -0.04778058 -0.008912723 -0.01502817 -0.007017339 -0.001940227 -0.04227119 -0.008622514 -0.0436811 -0.01514759 -0.0188248 -0.02222241 -0.01906076 -0.007500159 -0.06632748 -0.02211402 -0.001389454 -0.03928046 -0.01604338 -0.0006469141 -0.04933142 -0.01753392 -0.006184599 -0.003633046 -0.01982285 -0.009849303 -0.01054802 -0.007227334 -0.6243775 -0.2003873 -0.09809467 -0.06297991 -0.2071486 -0.4368367 -0.07349461 -0.1825612 -0.1574113 -0.6729832 -0.3691367 -0.06713279 -0.1108833 -0.3908408 -0.4994829 -0.1130277 -0.03138967 -0.01087689 -0.01776292 -0.004891252 -0.01203084 -0.02876244 -0.04334164 -0.02254935 -0.06590957 -0.01789582 -0.03986657 -0.06375173 -0.04778068 -0.008912723 -0.01502805 -0.007017341 -0.001940227 -0.0422711 -0.008622516 -0.04368119 -0.01514765 -0.0188248 -0.02222242 -0.01906107 -0.007500158 -0.06632879 -0.02211405 -0.001389454 -0.03928048 -0.01604346 -0.0006469141 -0.04933141 -0.01753392 -0.006184599 -0.003633048 -0.01982285 -0.009849303 -0.01054815 -0.007227334 -0.6243786 -0.2003867 -0.09809466 -0.06297986 -0.2071486 -0.436839 -0.07349489 -0.1825611 -0.1574099 -0.6729854 -0.3691359 -0.06713377 -0.1108818 -0.3908406 -0.4994822 -0.1130261 -0.03138909 -0.01087685 -0.01776293 -0.004891251 -0.01203084 -0.02876206 -0.0433417 -0.02254934 -0.06590956 -0.01789676 -0.03986676 -0.06375151 -0.04778078 -0.008912723 -0.01502788 -0.007017341 -0.001940227 -0.04227097 -0.008622517 -0.04368114 -0.01514771 -0.0188248 -0.02222242 -0.01906136 -0.007500156 -0.0663301 -0.02211407 -0.001389455 -0.0392805 -0.01604353 -0.0006469141 -0.0493314 -0.01753388 -0.006184599 -0.00363305 -0.01982285 -0.009849303 -0.01054824 -0.007227334 -0.6243795 -0.2003864 -0.09809464 -0.06297975 -0.2071489 -0.4368413 -0.07349517 -0.1825611 -0.1574085 -0.6729879 -0.3691352 -0.0671345 -0.1108807 -0.3908404 -0.499482 -0.113025 -0.03138858 -0.01087665 -0.01776293 -0.004891243 -0.01203084 -0.02876171 -0.04334176 -0.02254928 -0.06590956 -0.0178977 -0.03986697 -0.06375092 -0.04778088 -0.008912723 -0.01502766 -0.007017341 -0.001940227 -0.04227092 -0.008622508 -0.04368116 -0.01514777 -0.0188248 -0.02222243 -0.01906165 -0.007500146 -0.06633139 -0.0221141 -0.001389455 -0.03928054 -0.01604361 -0.0006469141 -0.04933142 -0.01753374 -0.006184599 -0.003633052 -0.01982285 -0.009849304 -0.01054838 -0.007227333 -0.6243797 -0.2003859 -0.09809462 -0.06297959 -0.207149 -0.4368436 -0.07349546 -0.1825611 -0.1574069 -0.6729902 -0.3691337 -0.06713507 -0.1108808 -0.3908398 -0.4994815 -0.1130245 -0.03138817 -0.01087633 -0.01776293 -0.004891209 -0.01203084 -0.02876149 -0.04334182 -0.02254916 -0.06590953 -0.01789863 -0.0398672 -0.06374961 -0.04778098 -0.008912723 -0.01502746 -0.007017339 -0.001940227 -0.0422709 -0.008622465 -0.04368116 -0.01514782 -0.0188248 -0.02222243 -0.01906195 -0.007500129 -0.0663327 -0.02211412 -0.001389455 -0.0392806 -0.01604368 -0.0006469141 -0.04933143 -0.01753362 -0.006184598 -0.003633054 -0.01982285 -0.009849304 -0.01054862 -0.007227332 ]
<Rescale> 605 605 
<LearnRateCoef> 0  [ 2.196661 2.776779 3.632211 4.715324 2.82052 2.131981 4.320666 2.950067 2.870179 2.291629 2.270574 4.517138 3.254926 2.198758 2.159974 3.242627 7.387682 10.88612 8.299012 17.63848 10.49274 6.494166 5.438241 7.711108 4.603909 8.296192 5.949346 4.500531 5.476755 12.54334 9.205426 14.52249 33.9061 5.675725 12.02785 6.289301 10.31974 8.649981 8.60725 8.799448 14.17602 5.135213 8.297895 36.44323 6.11765 9.659988 54.51532 5.126514 8.826522 16.28204 21.55166 7.931909 12.59194 11.66171 14.04009 2.196656 2.776778 3.632211 4.715323 2.82052 2.13198 4.320666 2.950067 2.870183 2.291621 2.270573 4.517138 3.254932 2.198762 2.159974 3.242635 7.387765 10.88612 8.299012 17.63848 10.49274 6.494187 5.43824 7.711117 4.603909 8.296161 5.949346 4.500531 5.476755 12.54334 9.205427 14.52249 33.9061 5.675725 12.02785 6.289301 10.31974 8.649981 8.60725 8.799447 14.17602 5.135213 8.297895 36.44323 6.11765 9.659988 54.51532 5.126514 8.826522 16.28204 21.55166 7.931909 12.59194 11.66161 14.04009 2.196655 2.776778 3.632211 4.715323 2.82052 2.13198 4.320659 2.950068 2.870187 2.291615 2.270572 4.517138 3.254964 2.198765 2.159974 3.242648 7.387847 10.88612 8.299012 17.63848 10.49274 6.494207 5.43824 7.711125 4.603909 8.296123 5.949346 4.500531 5.476756 12.54334 9.205427 14.52249 33.9061 5.675725 12.02785 6.289301 10.31974 8.649981 8.60725 8.79944 14.17602 5.135211 8.297895 36.44323 6.11765 9.659986 54.51532 5.126513 8.826522 16.28204 21.55166 7.931909 12.59194 11.66156 14.04009 2.196657 2.776778 3.632211 4.715322 2.820519 2.13198 4.320646 2.950068 2.87019 2.291616 2.270571 4.517127 3.255002 2.198768 2.159974 3.242679 7.38793 10.88612 8.299012 17.63848 10.49274 6.494227 5.438241 7.711134 4.603909 8.296041 5.949346 4.500531 5.476756 12.54334 9.205427 14.52249 33.9061 5.675725 12.02785 6.289301 10.31973 8.649981 8.60725 8.799433 14.17602 5.135191 8.297895 36.44323 6.117649 9.659978 54.51532 5.126513 8.826522 16.28204 21.55166 7.931909 12.59194 11.66152 14.04009 2.19666 2.776778 3.632211 4.715322 2.820517 2.131981 4.320636 2.950068 2.870194 2.291619 2.270571 4.517113 3.255043 2.198772 2.159973 3.242716 7.388011 10.88612 8.299012 17.63848 10.49274 6.494247 5.438241 7.711143 4.603909 8.295938 5.949345 4.500531 5.476757 12.54334 9.205428 14.52249 33.9061 5.675726 12.02785 6.289301 10.31973 8.649981 8.60725 8.799422 14.17602 5.135152 8.297895 36.44323 6.117649 9.659976 54.51532 5.126513 8.826522 16.28204 21.55165 7.931909 12.59194 11.66146 14.04009 2.196665 2.776779 3.632211 4.715322 2.820514 2.131982 4.320629 2.950069 2.870198 2.291622 2.270571 4.517104 3.25509 2.198774 2.159973 3.242754 7.388084 10.88612 8.299012 17.63848 10.49274 6.494267 5.438241 7.711152 4.603909 8.295872 5.949341 4.500531 5.476757 12.54334 9.205428 14.52249 33.9061 5.675726 12.02785 6.289301 10.31972 8.649981 8.60725 8.79941 14.17602 5.135114 8.297895 36.44323 6.117649 9.659969 54.51532 5.126513 8.826522 16.28204 21.55165 7.931909 12.59194 11.66141 14.04009 2.19667 2.776779 3.632211 4.715322 2.820511 2.131984 4.320621 2.95007 2.870202 2.291626 2.270571 4.517095 3.255136 2.198777 2.159974 3.242792 7.388159 10.88611 8.299012 17.63848 10.49274 6.494287 5.438241 7.71116 4.603909 8.295807 5.949338 4.500531 5.476757 12.54334 9.205428 14.52249 33.9061 5.675727 12.02785 6.2893 10.31971 8.649981 8.60725 8.799397 14.17602 5.135077 8.297895 36.44323 6.117648 9.659963 54.51532 5.126513 8.826522 16.28204 21.55166 7.931909 12.59194 11.66136 14.04009 2.196674 2.776779 3.63221 4.715322 2.82051 2.131985 4.320618 2.95007 2.870209 2.291631 2.270571 4.517085 3.255175 2.198779 2.159973 3.24283 7.388238 10.8861 8.299012 17.63848 10.49275 6.494303 5.438241 7.711161 4.603909 8.295741 5.949335 4.500536 5.476757 12.54334 9.205462 14.52249 33.9061 5.675727 12.02785 6.289299 10.31971 8.649981 8.60725 8.799384 14.17602 5.135039 8.297894 36.44323 6.117649 9.659955 54.51532 5.126513 8.826522 16.28204 21.55166 7.931909 12.59194 11.66131 14.04009 2.196677 2.776781 3.63221 4.715321 2.82051 2.131988 4.320618 2.95007 2.870216 2.291636 2.270571 4.517076 3.255208 2.198782 2.159974 3.242863 7.388302 10.88612 8.299012 17.63848 10.49275 6.494308 5.438241 7.71116 4.603909 8.295674 5.949331 4.500544 5.476757 12.54334 9.205528 14.52249 33.9061 5.675731 12.02785 6.28931 10.3197 8.649981 8.60725 8.799372 14.17602 5.135002 8.297894 36.44323 6.117649 9.659949 54.51532 5.126513 8.826522 16.28204 21.55166 7.931909 12.59194 11.66127 14.04009 2.19668 2.776783 3.63221 4.715322 2.820508 2.131991 4.320618 2.95007 2.870223 2.291644 2.270571 4.517072 3.255235 2.198785 2.159975 3.24289 7.388353 10.88622 8.299012 17.63848 10.49275 6.494323 5.438242 7.711163 4.603909 8.295609 5.949328 4.500562 5.476757 12.54334 9.205606 14.52249 33.9061 5.675731 12.02785 6.289313 10.31969 8.649981 8.60725 8.79936 14.17602 5.134964 8.297894 36.44323 6.117649 9.659943 54.51532 5.126513 8.826536 16.28204 21.55166 7.931909 12.59194 11.66122 14.04009 2.196684 2.776785 3.63221 4.715326 2.820506 2.131994 4.320618 2.950071 2.870235 2.29165 2.270573 4.517071 3.255241 2.198789 2.159976 3.242911 7.388397 10.88638 8.299013 17.63849 10.49275 6.494324 5.438242 7.711174 4.603909 8.295543 5.949325 4.500607 5.476758 12.54334 9.205684 14.52249 33.9061 5.675731 12.02785 6.289316 10.31969 8.649981 8.60725 8.799347 14.17602 5.134926 8.297894 36.44323 6.117649 9.659936 54.51532 5.126513 8.826552 16.28204 21.55166 7.931909 12.59194 11.66115 14.04009 ]
</Nnet> 
