<Nnet> 
<Splice> 351 39 
[ -4 -3 -2 -1 0 1 2 3 4 ]
<AddShift> 351 351 
<LearnRateCoef> 0  [ -0.004530312 -0.0003568863 0.007362503 -0.002475801 -0.0005375142 0.003695033 0.004801299 0.00107825 -0.003802029 -0.002670777 0.002182374 0.001885085 -0.0009756623 0.000992208 2.344862e-05 -0.001870896 0.0005294109 1.916035e-05 -0.0009815641 -0.001096381 3.006613e-05 0.0009616488 0.0005431363 -0.0005776606 -0.0003502384 9.082101e-06 -4.342992e-05 6.813218e-05 6.596245e-05 9.068754e-05 8.495322e-05 4.212629e-06 8.429854e-05 4.755296e-05 -5.628091e-06 0.0001427252 1.392203e-05 -3.310992e-05 3.331053e-05 -0.003403368 -0.000411312 0.005442413 -0.001871221 -0.0005277953 0.002762213 0.003573006 0.0008242182 -0.002621022 -0.00204808 0.001495902 0.001476428 -0.0007158359 0.001040853 7.064086e-05 -0.001850015 0.000578042 8.081945e-05 -0.0009543651 -0.001126979 -4.27488e-05 0.0009751039 0.0006216979 -0.0005466763 -0.0004003246 8.212517e-05 -2.763169e-05 5.863545e-05 5.579038e-05 5.988873e-05 7.348511e-05 1.940676e-05 5.597199e-05 7.878934e-06 -4.568521e-05 0.000106067 3.548164e-05 -4.096937e-05 2.13131e-05 -0.002241938 -0.0003650587 0.003563713 -0.001247721 -0.0004421014 0.001883322 0.002359882 0.0006141064 -0.001643814 -0.001320442 0.001024687 0.001090621 -0.0004314142 0.001082866 0.000118818 -0.00182496 0.0006143112 0.0001448112 -0.0008991509 -0.001132681 -0.0001414728 0.0009186429 0.0006950019 -0.0004934135 -0.0004449802 0.0001321771 -1.621461e-05 4.719588e-05 4.460169e-05 3.508832e-05 6.191129e-05 1.410545e-05 2.395721e-05 -3.714145e-05 -6.4124e-05 5.772687e-05 2.548624e-05 -4.172658e-05 1.540253e-05 -0.001100698 -0.0001638049 0.001772611 -0.0006172428 -0.0002320978 0.000918311 0.001229808 0.0003702812 -0.0007999968 -0.0006266762 0.0005632922 0.0005589697 -0.0001979264 0.001104632 0.0001586307 -0.001791631 0.0006265711 0.0001966002 -0.0009141032 -0.001175324 -0.0002664894 0.0008442822 0.000685859 -0.0005043171 -0.0005072025 0.0001865637 -3.424693e-06 2.554783e-05 2.968996e-05 1.637939e-05 4.116829e-05 5.626378e-06 -8.10729e-06 -7.038949e-05 -5.445125e-05 9.970536e-06 -7.513732e-06 -3.895342e-05 2.160378e-05 -1.656705e-07 -6.326363e-09 -1.795559e-08 -3.464114e-08 -6.072778e-08 -2.724006e-09 1.491273e-08 7.888038e-09 2.276461e-09 8.543429e-09 1.878182e-08 -4.971606e-08 1.978378e-08 0.001121519 0.0001628075 -0.00177534 0.0006343491 0.0002207631 -0.0009312292 -0.001229306 -0.0003969187 0.0008240204 0.0006591151 -0.0005592541 -0.0005594104 0.0002411245 1.515546e-05 3.311988e-06 1.044037e-05 3.06773e-06 1.759116e-05 -2.051559e-06 -3.81318e-05 -8.882979e-05 -2.41466e-05 -2.445807e-05 -3.365522e-05 -3.12244e-05 3.476556e-05 0.001100366 0.0001637922 -0.001772647 0.0006171736 0.0002319763 -0.0009183164 -0.001229778 -0.0003702654 0.0008000014 0.0006266933 -0.0005632547 -0.0005590692 0.0001979659 0.001138406 0.0001669842 -0.001759048 0.0006421271 0.0002449261 -0.000948355 -0.001283288 -0.000527348 0.0008037587 0.0006323712 -0.0006141912 -0.0006116183 0.0002956854 3.373562e-05 -1.892385e-05 -8.80922e-06 -1.024393e-05 -5.985966e-06 -9.729498e-06 -6.815632e-05 -0.0001072701 6.158038e-06 -5.888668e-05 -5.97967e-05 -2.349537e-05 4.792733e-05 0.002265113 0.0002851862 -0.003540358 0.001306818 0.0004296733 -0.001854514 -0.002556852 -0.001000216 0.001676289 0.001348448 -0.00120831 -0.001147414 0.0005762615 0.001176922 0.0001656018 -0.001755339 0.0006235674 0.0002727033 -0.0009437415 -0.001345212 -0.0006654277 0.0007577757 0.0005241992 -0.000688997 -0.0006624061 0.000344404 4.85972e-05 -3.228969e-05 -2.552929e-05 -2.392305e-05 -3.153538e-05 -1.226164e-05 -9.5298e-05 -0.0001123548 4.934481e-05 -8.711877e-05 -8.772187e-05 -1.378639e-05 3.597671e-05 0.003499226 0.0003922533 -0.005349297 0.001939625 0.0006423354 -0.002833442 -0.003941386 -0.001669412 0.002535952 0.001928372 -0.00186238 -0.001765914 0.001061084 0.001239871 0.0001757278 -0.00176833 0.0005978355 0.0002833494 -0.0009271133 -0.001450096 -0.0008015319 0.0007615819 0.0004505096 -0.0007358741 -0.0007081559 0.0003402988 5.447206e-05 -4.176229e-05 -4.024539e-05 -2.436757e-05 -6.07593e-05 -1.488384e-05 -0.0001115857 -0.0001140528 9.865816e-05 -9.628256e-05 -0.0001259021 -5.316103e-06 9.700395e-06 0.004806799 0.0004786879 -0.00720053 0.002469162 0.000865586 -0.003682307 -0.005336904 -0.002357237 0.003275322 0.002172071 -0.002611286 -0.002362235 0.001463432 0.001295001 0.0002124158 -0.001763216 0.0005862777 0.0002856111 -0.0008995074 -0.001549153 -0.0009406897 0.0008223138 0.0004001457 -0.0008269809 -0.0007568717 0.0002927835 5.199634e-05 -5.413264e-05 -5.485583e-05 -1.051726e-05 -8.282095e-05 -2.697512e-05 -0.0001130771 -0.0001046043 0.000155944 -8.506632e-05 -0.0001664644 -4.538472e-06 7.449743e-07 ]
<Rescale> 351 351 
<LearnRateCoef> 0  [ 0.07476923 0.0552798 0.07753778 0.06323487 0.06767527 0.07321197 0.07038214 0.07622855 0.07966248 0.07920633 0.08817504 0.08469156 0.1035156 0.395453 0.2555557 0.314857 0.2998411 0.2759262 0.2867559 0.2785785 0.2913445 0.2967207 0.3000244 0.3246063 0.3304744 0.3726568 0.986846 0.6861922 0.7710578 0.7583272 0.6760014 0.6891853 0.6691554 0.6892651 0.6958542 0.7068381 0.7520793 0.7794954 0.8620222 0.07476248 0.0552799 0.0775417 0.06323417 0.06767392 0.07321042 0.07038151 0.07623058 0.07966276 0.07920474 0.08817802 0.08469003 0.1035168 0.395458 0.2555555 0.3148606 0.2998459 0.2759301 0.2867627 0.2785883 0.291356 0.2967356 0.3000373 0.3246198 0.330486 0.3726702 0.9868436 0.6861758 0.7710202 0.7582704 0.6759387 0.6890966 0.6690622 0.6891426 0.6957037 0.706686 0.7519033 0.779294 0.8617938 0.07475558 0.05527983 0.07754583 0.06323346 0.06767254 0.07320894 0.07038088 0.0762319 0.07966363 0.07920288 0.0881803 0.0846884 0.1035174 0.3954627 0.2555555 0.3148636 0.299851 0.2759342 0.2867686 0.2785983 0.2913691 0.296748 0.3000515 0.3246321 0.3304953 0.372683 0.9868448 0.6861615 0.7709878 0.758217 0.675877 0.6890111 0.6689674 0.689014 0.6955549 0.7065327 0.7517264 0.7790972 0.8615689 0.07474908 0.05527947 0.07754983 0.0632326 0.0676712 0.07320707 0.07038045 0.07623275 0.07966498 0.07920133 0.08818186 0.08468745 0.103519 0.3954685 0.255555 0.3148637 0.2998515 0.2759321 0.2867647 0.2785968 0.2913659 0.2967424 0.3000436 0.3246207 0.330481 0.3726679 0.9868529 0.6861573 0.7709764 0.7581962 0.6758488 0.6889716 0.668925 0.6889519 0.6954884 0.7064611 0.7516416 0.7790005 0.8614535 0.07474309 0.0552793 0.077554 0.06323184 0.06766952 0.07320517 0.0703802 0.07623392 0.07966571 0.07919928 0.08818404 0.08468647 0.1035195 0.395477 0.2555565 0.3148685 0.2998568 0.2759342 0.286768 0.2786 0.2913683 0.2967469 0.3000434 0.3246211 0.330477 0.3726662 0.9868652 0.6861602 0.7709821 0.7582049 0.6758516 0.6889738 0.6689308 0.6889559 0.6954905 0.7064673 0.751642 0.7790009 0.8614523 0.07473711 0.05527912 0.07755817 0.06323107 0.06766783 0.07320329 0.07037994 0.07623508 0.07966645 0.07919723 0.08818623 0.08468549 0.10352 0.3954855 0.2555579 0.3148732 0.2998622 0.2759364 0.2867713 0.2786033 0.2913707 0.2967515 0.3000431 0.3246216 0.3304729 0.3726646 0.9868774 0.6861631 0.7709879 0.7582135 0.6758545 0.688976 0.6689367 0.6889599 0.6954926 0.7064737 0.7516424 0.7790014 0.8614511 0.0747309 0.05527902 0.07756233 0.06323012 0.06766638 0.07320204 0.07037941 0.07623604 0.07966777 0.07919501 0.08818777 0.0846845 0.1035212 0.3954998 0.2555617 0.3148829 0.2998746 0.2759429 0.2867805 0.2786142 0.2913809 0.296765 0.3000542 0.3246331 0.3304829 0.3726792 0.9869006 0.6861749 0.771018 0.7582529 0.6758913 0.6890258 0.6689948 0.6890346 0.6955715 0.7065601 0.7517307 0.7790946 0.8615593 0.07472441 0.05527906 0.07756684 0.06322911 0.06766465 0.07320017 0.07037875 0.07623603 0.07966889 0.07919349 0.08818901 0.08468428 0.1035232 0.3955143 0.2555653 0.3148904 0.2998816 0.2759438 0.2867796 0.2786135 0.2913732 0.2967584 0.3000453 0.3246227 0.3304707 0.3726617 0.9869429 0.6861998 0.7710775 0.7583302 0.6759627 0.6891269 0.6691065 0.6891775 0.6957297 0.7067269 0.7519088 0.7792835 0.8617875 0.0747176 0.05527916 0.07757111 0.06322839 0.06766304 0.0731985 0.0703783 0.07623577 0.07967003 0.07919291 0.08819143 0.08468392 0.1035243 0.3955287 0.2555687 0.3149001 0.299888 0.2759452 0.286779 0.278613 0.2913671 0.2967527 0.3000382 0.3246112 0.3304571 0.3726437 0.9869907 0.6862292 0.7711374 0.7584154 0.6760366 0.6892322 0.6692228 0.6893167 0.69589 0.7068972 0.7520957 0.7794776 0.8620265 ]
</Nnet> 
