<Nnet> 
<Splice> 165 15 
[ -5 -4 -3 -2 -1 0 1 2 3 4 5 ]
<AddShift> 165 165 
<LearnRateCoef> 0  [ -0.05980902 -0.4624475 -0.5254577 -0.2125894 -0.2202635 -0.07164887 -0.4106626 -0.3867905 -0.07806127 -0.06691867 -0.1929064 -0.7105832 -0.660028 -0.1034856 -0.1638672 -0.0587276 -0.4628786 -0.526562 -0.2127297 -0.2202915 -0.07159261 -0.4115279 -0.3879184 -0.07809362 -0.06694007 -0.1931991 -0.7115694 -0.6606432 -0.1037795 -0.1643888 -0.05777283 -0.4633057 -0.5275957 -0.212848 -0.2203137 -0.07153442 -0.4123657 -0.3889932 -0.07812566 -0.06695921 -0.1934957 -0.7125208 -0.6612359 -0.1040307 -0.1649005 -0.05696002 -0.4637225 -0.5285202 -0.2129516 -0.2203228 -0.07147592 -0.4131363 -0.3899629 -0.07815592 -0.06697752 -0.1937809 -0.7133894 -0.6618042 -0.104219 -0.1653988 -0.05630707 -0.4641096 -0.5292792 -0.213033 -0.2203155 -0.07141697 -0.413765 -0.3907951 -0.07817577 -0.06699321 -0.194018 -0.7141271 -0.6623297 -0.1043272 -0.1658804 -0.05589097 -0.4644115 -0.5297869 -0.2130629 -0.2202807 -0.07135687 -0.4141893 -0.3914552 -0.07817305 -0.06700317 -0.1941741 -0.7146242 -0.6627479 -0.1043526 -0.1663477 -0.05547487 -0.4647135 -0.5302947 -0.2130928 -0.2202458 -0.07129677 -0.4146135 -0.3921153 -0.07817034 -0.06701313 -0.1943303 -0.7151213 -0.663166 -0.104378 -0.1668149 -0.05593523 -0.4646857 -0.5303128 -0.2129279 -0.2200334 -0.07114349 -0.4146827 -0.3924518 -0.07811803 -0.06700696 -0.1944566 -0.7148463 -0.6629773 -0.104329 -0.1672108 -0.0566613 -0.4644593 -0.5301709 -0.2126712 -0.2197162 -0.07096674 -0.4146692 -0.3927308 -0.07801265 -0.06693702 -0.1945194 -0.7143463 -0.6625684 -0.1042563 -0.1675738 -0.0574488 -0.4641967 -0.529971 -0.2123603 -0.2193842 -0.07077569 -0.414634 -0.3929642 -0.07788214 -0.06683813 -0.1945668 -0.7137966 -0.6620774 -0.1041799 -0.1679133 -0.05827827 -0.4639346 -0.529736 -0.2119965 -0.2190215 -0.07055644 -0.4145813 -0.3931895 -0.07775725 -0.06675526 -0.1945929 -0.7132238 -0.6615381 -0.1041044 -0.1682455 ]
<Rescale> 165 165 
<LearnRateCoef> 0  [ 4.395418 2.126989 2.171584 2.721328 2.765738 4.387259 2.186221 2.256189 4.205104 4.584225 2.892644 2.392035 2.262383 3.547814 2.825557 4.428907 2.126718 2.171701 2.720759 2.765363 4.388429 2.185181 2.254807 4.20426 4.583944 2.890981 2.394634 2.262943 3.542895 2.821593 4.459261 2.126466 2.171959 2.720293 2.765038 4.389617 2.184238 2.253618 4.203512 4.583835 2.88945 2.397332 2.263486 3.539086 2.817748 4.485767 2.126257 2.172371 2.719841 2.764805 4.390816 2.183454 2.252744 4.202861 4.583806 2.888127 2.400062 2.264029 3.536717 2.81408 4.507417 2.126118 2.172875 2.719446 2.764673 4.392017 2.182884 2.252207 4.202506 4.583826 2.88715 2.402641 2.264575 3.53574 2.810591 4.521102 2.126089 2.173316 2.719285 2.76467 4.393217 2.182583 2.251898 4.202628 4.583893 2.886651 2.404666 2.265093 3.535773 2.807253 4.534928 2.12606 2.173761 2.719124 2.764667 4.394417 2.182283 2.251594 4.20275 4.58396 2.886153 2.4067 2.265613 3.535807 2.803932 4.515717 2.125853 2.174123 2.719762 2.7653 4.397826 2.182513 2.251598 4.203962 4.584166 2.885637 2.406322 2.264721 3.536886 2.80119 4.490371 2.125842 2.174621 2.720948 2.766649 4.402035 2.182952 2.251778 4.206661 4.585466 2.885247 2.405896 2.263791 3.538465 2.798731 4.464435 2.125938 2.17523 2.722461 2.768185 4.406797 2.18345 2.252091 4.210216 4.587841 2.88502 2.40548 2.262894 3.540189 2.796466 4.437992 2.12608 2.175873 2.72437 2.770009 4.412716 2.183993 2.252414 4.213694 4.590313 2.885033 2.405011 2.261984 3.541994 2.79429 ]
</Nnet> 
