<Nnet> 
<Splice> 165 15 
[ -5 -4 -3 -2 -1 0 1 2 3 4 5 ]
<AddShift> 165 165 
<LearnRateCoef> 0  [ -0.6243718 -0.2003905 -0.09809524 -0.06298032 -0.2071483 -0.4368286 -0.07349191 -0.182566 -0.1574183 -0.6729773 -0.3691415 -0.06712731 -0.1108951 -0.3908398 -0.4994867 -0.6243707 -0.2003899 -0.09809515 -0.06298026 -0.2071477 -0.4368282 -0.07349187 -0.1825652 -0.1574173 -0.6729756 -0.3691408 -0.06712734 -0.1108951 -0.3908398 -0.4994862 -0.6243703 -0.2003894 -0.09809507 -0.0629802 -0.2071474 -0.4368282 -0.07349219 -0.1825645 -0.1574162 -0.6729745 -0.36914 -0.0671277 -0.1108938 -0.3908395 -0.4994856 -0.6243709 -0.200389 -0.09809498 -0.06298014 -0.2071475 -0.4368294 -0.0734928 -0.1825637 -0.1574153 -0.6729752 -0.3691393 -0.06712876 -0.1108919 -0.3908395 -0.4994848 -0.6243722 -0.2003886 -0.0980949 -0.06298008 -0.2071479 -0.4368306 -0.07349336 -0.182563 -0.1574144 -0.6729769 -0.3691387 -0.06712986 -0.1108898 -0.39084 -0.499484 -0.6243742 -0.2003882 -0.09809481 -0.06298002 -0.2071482 -0.4368326 -0.07349382 -0.1825623 -0.1574134 -0.6729789 -0.3691381 -0.06713083 -0.1108875 -0.3908404 -0.4994836 -0.6243759 -0.2003877 -0.09809472 -0.06297996 -0.2071486 -0.4368345 -0.07349427 -0.1825617 -0.1574125 -0.6729809 -0.3691375 -0.06713182 -0.1108852 -0.3908407 -0.4994833 -0.6243775 -0.2003873 -0.09809467 -0.06297991 -0.2071486 -0.4368367 -0.07349461 -0.1825612 -0.1574113 -0.6729832 -0.3691367 -0.06713279 -0.1108833 -0.3908408 -0.4994829 -0.6243786 -0.2003867 -0.09809466 -0.06297986 -0.2071486 -0.436839 -0.07349489 -0.1825611 -0.1574099 -0.6729854 -0.3691359 -0.06713377 -0.1108818 -0.3908406 -0.4994822 -0.6243795 -0.2003864 -0.09809464 -0.06297975 -0.2071489 -0.4368413 -0.07349517 -0.1825611 -0.1574085 -0.6729879 -0.3691352 -0.0671345 -0.1108807 -0.3908404 -0.499482 -0.6243797 -0.2003859 -0.09809462 -0.06297959 -0.207149 -0.4368436 -0.07349546 -0.1825611 -0.1574069 -0.6729902 -0.3691337 -0.06713507 -0.1108808 -0.3908398 -0.4994815 ]
<Rescale> 165 165 
<LearnRateCoef> 0  [ 2.196661 2.776779 3.632211 4.715324 2.82052 2.131981 4.320666 2.950067 2.870179 2.291629 2.270574 4.517138 3.254926 2.198758 2.159974 2.196656 2.776778 3.632211 4.715323 2.82052 2.13198 4.320666 2.950067 2.870183 2.291621 2.270573 4.517138 3.254932 2.198762 2.159974 2.196655 2.776778 3.632211 4.715323 2.82052 2.13198 4.320659 2.950068 2.870187 2.291615 2.270572 4.517138 3.254964 2.198765 2.159974 2.196657 2.776778 3.632211 4.715322 2.820519 2.13198 4.320646 2.950068 2.87019 2.291616 2.270571 4.517127 3.255002 2.198768 2.159974 2.19666 2.776778 3.632211 4.715322 2.820517 2.131981 4.320636 2.950068 2.870194 2.291619 2.270571 4.517113 3.255043 2.198772 2.159973 2.196665 2.776779 3.632211 4.715322 2.820514 2.131982 4.320629 2.950069 2.870198 2.291622 2.270571 4.517104 3.25509 2.198774 2.159973 2.19667 2.776779 3.632211 4.715322 2.820511 2.131984 4.320621 2.95007 2.870202 2.291626 2.270571 4.517095 3.255136 2.198777 2.159974 2.196674 2.776779 3.63221 4.715322 2.82051 2.131985 4.320618 2.95007 2.870209 2.291631 2.270571 4.517085 3.255175 2.198779 2.159973 2.196677 2.776781 3.63221 4.715321 2.82051 2.131988 4.320618 2.95007 2.870216 2.291636 2.270571 4.517076 3.255208 2.198782 2.159974 2.19668 2.776783 3.63221 4.715322 2.820508 2.131991 4.320618 2.95007 2.870223 2.291644 2.270571 4.517072 3.255235 2.198785 2.159975 2.196684 2.776785 3.63221 4.715326 2.820506 2.131994 4.320618 2.950071 2.870235 2.29165 2.270573 4.517071 3.255241 2.198789 2.159976 ]
</Nnet> 
