<Nnet> 
<Splice> 231 21 
[ -5 -4 -3 -2 -1 0 1 2 3 4 5 ]
<AddShift> 231 231 
<LearnRateCoef> 0  [ -0.6169532 -0.01011023 -0.01524633 -0.6802378 -0.1239896 -0.2059038 -0.1408001 -0.09809524 -0.04280354 -0.09191 -0.1972319 -0.1310949 -0.3896757 -0.1832958 -0.1006196 -0.05770389 -0.2906764 -0.3539799 -0.1108951 -0.4036697 -0.07663768 -0.6169519 -0.01011024 -0.01524637 -0.6802365 -0.1239897 -0.2059028 -0.1408006 -0.09809515 -0.04280292 -0.09191144 -0.1972315 -0.1310944 -0.3896758 -0.1832951 -0.1006184 -0.05770389 -0.2906753 -0.35398 -0.1108951 -0.4036693 -0.07663622 -0.6169515 -0.01011026 -0.01524641 -0.6802365 -0.1239898 -0.2059019 -0.1408009 -0.09809507 -0.0428023 -0.0919129 -0.1972316 -0.1310941 -0.389676 -0.1832946 -0.1006173 -0.05770393 -0.2906742 -0.3539802 -0.1108938 -0.4036689 -0.07663479 -0.6169526 -0.0101103 -0.01524653 -0.6802379 -0.1239901 -0.205901 -0.1408012 -0.09809498 -0.04280167 -0.09191472 -0.1972317 -0.1310939 -0.3896763 -0.1832945 -0.1006164 -0.05770401 -0.290673 -0.3539812 -0.1108919 -0.4036686 -0.07663345 -0.6169543 -0.01011044 -0.01524661 -0.6802392 -0.1239908 -0.2059001 -0.1408015 -0.0980949 -0.04280105 -0.09191595 -0.1972318 -0.1310937 -0.3896767 -0.1832944 -0.1006158 -0.05770409 -0.290672 -0.3539825 -0.1108898 -0.4036685 -0.07663225 -0.6169565 -0.01011065 -0.01524667 -0.6802405 -0.1239916 -0.2058993 -0.1408015 -0.09809481 -0.04280043 -0.09191663 -0.1972318 -0.1310936 -0.3896772 -0.183294 -0.1006153 -0.05770416 -0.290671 -0.353985 -0.1108875 -0.4036686 -0.07663113 -0.6169586 -0.01011087 -0.01524673 -0.6802418 -0.1239924 -0.2058984 -0.1408015 -0.09809472 -0.0427998 -0.09191732 -0.1972319 -0.1310936 -0.3896777 -0.1832937 -0.1006147 -0.05770422 -0.29067 -0.3539874 -0.1108852 -0.4036686 -0.07663 -0.6169608 -0.01011108 -0.01524679 -0.6802429 -0.1239932 -0.205898 -0.1408014 -0.09809467 -0.0427995 -0.09191803 -0.1972321 -0.1310935 -0.3896781 -0.1832931 -0.1006146 -0.05770429 -0.2906687 -0.3539899 -0.1108833 -0.4036689 -0.0766291 -0.6169627 -0.01011129 -0.01524684 -0.6802438 -0.123994 -0.2058977 -0.1408009 -0.09809466 -0.04279929 -0.09191881 -0.1972323 -0.1310936 -0.3896785 -0.1832923 -0.1006148 -0.05770436 -0.2906674 -0.3539923 -0.1108818 -0.4036692 -0.07662825 -0.6169646 -0.0101115 -0.0152469 -0.680245 -0.1239948 -0.2058976 -0.1408006 -0.09809464 -0.04279914 -0.0919195 -0.1972326 -0.1310937 -0.3896782 -0.1832916 -0.1006153 -0.05770442 -0.2906665 -0.3539948 -0.1108807 -0.4036693 -0.07662769 -0.6169659 -0.0101117 -0.01524695 -0.6802461 -0.1239955 -0.2058974 -0.1408003 -0.09809462 -0.0427988 -0.0919198 -0.1972329 -0.1310938 -0.3896769 -0.1832901 -0.1006155 -0.05770443 -0.2906649 -0.3539971 -0.1108808 -0.4036685 -0.07662752 ]
<Rescale> 231 231 
<LearnRateCoef> 0  [ 2.187967 11.05869 9.117415 2.29093 3.639539 2.773571 3.129545 3.632211 5.331696 3.735748 2.838519 3.421405 2.306895 2.721525 3.735236 4.870051 2.382468 2.27356 3.254926 2.193628 4.027768 2.187963 11.05869 9.117416 2.290925 3.639539 2.773572 3.129554 3.632211 5.331719 3.73575 2.83852 3.421407 2.306896 2.721528 3.73524 4.870051 2.38247 2.27356 3.254932 2.19363 4.027771 2.187962 11.05869 9.117415 2.290926 3.639539 2.773573 3.129565 3.632211 5.331743 3.73575 2.838518 3.421409 2.306897 2.721531 3.735245 4.870051 2.382472 2.273561 3.254964 2.193632 4.027775 2.187965 11.05869 9.117408 2.290931 3.639539 2.773575 3.129574 3.632211 5.331767 3.735745 2.838518 3.421409 2.306898 2.721533 3.735249 4.870051 2.382473 2.273561 3.255002 2.193635 4.027778 2.187969 11.05867 9.117408 2.290935 3.639536 2.773576 3.129581 3.632211 5.331791 3.735742 2.838517 3.421409 2.3069 2.721536 3.73525 4.870051 2.382476 2.273562 3.255043 2.193638 4.027779 2.187974 11.0586 9.117408 2.290939 3.639528 2.773578 3.129591 3.632211 5.331814 3.735742 2.838516 3.421407 2.306902 2.721538 3.735252 4.870051 2.382478 2.273562 3.25509 2.19364 4.02778 2.187979 11.05852 9.117407 2.290944 3.63952 2.773579 3.1296 3.632211 5.331838 3.735742 2.838515 3.421404 2.306904 2.72154 3.735254 4.870051 2.38248 2.273561 3.255136 2.193643 4.027781 2.187983 11.05844 9.117406 2.290947 3.639513 2.773579 3.129609 3.63221 5.331844 3.735742 2.838513 3.421402 2.306906 2.721543 3.735252 4.870051 2.382483 2.273561 3.255175 2.193646 4.02778 2.187988 11.05837 9.117405 2.29095 3.639504 2.773578 3.129621 3.63221 5.331847 3.735742 2.838511 3.4214 2.306908 2.721547 3.735252 4.870052 2.382486 2.27356 3.255208 2.193648 4.027781 2.187993 11.05829 9.117404 2.290955 3.639497 2.773578 3.129633 3.63221 5.331848 3.735743 2.83851 3.421398 2.30691 2.721549 3.735253 4.870052 2.382488 2.27356 3.255235 2.19365 4.027779 2.187996 11.05822 9.117403 2.290958 3.63949 2.773578 3.129643 3.63221 5.331861 3.735748 2.838508 3.421396 2.306913 2.721558 3.735259 4.870053 2.382493 2.27356 3.255241 2.193653 4.027776 ]
</Nnet> 
