<Nnet> 
<Splice> 165 15 
[ -5 -4 -3 -2 -1 0 1 2 3 4 5 ]
<AddShift> 165 165 
<LearnRateCoef> 0  [ -0.5510902 -0.1731345 -0.0691436 -0.06954764 -0.1820703 -0.3769277 -0.05893371 -0.1566405 -0.1211488 -0.5726044 -0.2851817 -0.1050285 -1.014809e-10 -0.3106794 -0.3978785 -0.5510903 -0.173134 -0.06914321 -0.06954818 -0.1820719 -0.3769317 -0.0589349 -0.1566433 -0.12115 -0.5726074 -0.2851804 -0.1050271 -1.014843e-10 -0.3106756 -0.3978747 -0.5510904 -0.1731341 -0.06914213 -0.06954862 -0.1820739 -0.3769342 -0.05893618 -0.1566448 -0.1211509 -0.5726084 -0.2851796 -0.1050259 -1.01489e-10 -0.3106721 -0.397871 -0.5510885 -0.1731346 -0.06914087 -0.0695489 -0.1820757 -0.3769345 -0.05893756 -0.156646 -0.1211521 -0.5726083 -0.2851797 -0.1050246 -1.014947e-10 -0.3106703 -0.397869 -0.5510862 -0.1731361 -0.06914008 -0.06954861 -0.1820769 -0.3769328 -0.05893856 -0.1566468 -0.1211536 -0.5726069 -0.2851797 -0.105023 -1.015022e-10 -0.3106697 -0.3978687 -0.5510851 -0.1731368 -0.06913961 -0.06954842 -0.1820781 -0.3769322 -0.05893884 -0.1566473 -0.1211544 -0.5726063 -0.285179 -0.1050222 -1.015113e-10 -0.3106698 -0.3978685 -0.551084 -0.1731376 -0.06913913 -0.06954823 -0.1820793 -0.3769317 -0.05893913 -0.1566477 -0.1211553 -0.5726056 -0.2851782 -0.1050215 -1.015204e-10 -0.31067 -0.3978683 -0.5510823 -0.1731392 -0.06913924 -0.0695477 -0.1820803 -0.3769304 -0.05893878 -0.1566479 -0.1211563 -0.5726044 -0.2851772 -0.1050202 -1.0153e-10 -0.3106706 -0.3978677 -0.55108 -0.1731413 -0.0691391 -0.06954718 -0.1820817 -0.3769294 -0.05893888 -0.1566479 -0.1211572 -0.572603 -0.2851765 -0.1050195 -1.01543e-10 -0.3106703 -0.3978669 -0.5510786 -0.1731425 -0.06913863 -0.06954664 -0.1820853 -0.3769293 -0.05893945 -0.1566485 -0.1211564 -0.5726032 -0.2851732 -0.105019 -1.015603e-10 -0.3106691 -0.3978647 -0.5510769 -0.173144 -0.06913805 -0.06954554 -0.1820887 -0.3769295 -0.0589399 -0.1566486 -0.1211549 -0.5726024 -0.2851695 -0.1050185 -1.015808e-10 -0.3106671 -0.3978618 ]
<Rescale> 165 165 
<LearnRateCoef> 0  [ 2.150738 2.978535 4.334082 4.515956 2.989979 2.205638 4.939824 3.167331 3.28857 2.20012 2.460874 3.773163 100000 2.35065 2.219459 2.150738 2.978538 4.33408 4.515952 2.989964 2.205634 4.939774 3.167314 3.288552 2.200121 2.46088 3.773196 100000 2.350658 2.219465 2.150738 2.978538 4.334102 4.515948 2.989943 2.205629 4.939716 3.167304 3.288541 2.200123 2.460883 3.773217 100000 2.350666 2.21947 2.150735 2.97853 4.334128 4.515944 2.989924 2.205626 4.939646 3.167297 3.288527 2.200122 2.460881 3.773238 100000 2.350667 2.219469 2.150735 2.978513 4.334137 4.515954 2.989911 2.205628 4.939603 3.167291 3.288508 2.200121 2.460881 3.773261 100000 2.350667 2.219469 2.150734 2.978507 4.334144 4.515964 2.989897 2.205629 4.93959 3.167289 3.288497 2.200121 2.460883 3.773274 100000 2.350665 2.219469 2.150733 2.978501 4.334151 4.515974 2.989883 2.20563 4.939578 3.167286 3.288487 2.200121 2.460884 3.773286 100000 2.350663 2.219468 2.150731 2.978489 4.334147 4.515989 2.989869 2.205627 4.9396 3.167284 3.28847 2.200122 2.460886 3.773311 100000 2.35066 2.219465 2.150731 2.978478 4.334154 4.516006 2.989858 2.205631 4.939603 3.167287 3.288463 2.200123 2.460891 3.773323 100000 2.350663 2.219466 2.150733 2.978476 4.334176 4.516024 2.98983 2.205632 4.939572 3.167282 3.28848 2.200124 2.460906 3.773334 100000 2.35067 2.21947 2.150733 2.978469 4.33421 4.516066 2.989807 2.205631 4.939554 3.167278 3.288508 2.200124 2.460922 3.773352 100000 2.350674 2.219476 ]
</Nnet> 
